<?xml version="1.0"?>
<opencv_storage>
<cascade>
  <stageType>BOOST</stageType>
  <featureType>HAAR</featureType>
  <height>15</height>
  <width>40</width>
  <stageParams>
    <boostType>GAB</boostType>
    <minHitRate>9.9500000476837158e-01</minHitRate>
    <maxFalseAlarm>5.0000000000000000e-01</maxFalseAlarm>
    <weightTrimRate>9.4999999999999996e-01</weightTrimRate>
    <maxDepth>1</maxDepth>
    <maxWeakCount>100</maxWeakCount></stageParams>
  <featureParams>
    <maxCatCount>0</maxCatCount>
    <featSize>1</featSize>
    <mode>BASIC</mode></featureParams>
  <stageNum>6</stageNum>
  <stages>
    <!-- stage 0 -->
    <_>
      <maxWeakCount>3</maxWeakCount>
      <stageThreshold>-8.2353794574737549e-01</stageThreshold>
      <weakClassifiers>
        <_>
          <internalNodes>
            0 -1 6 2.8540515899658203e-01</internalNodes>
          <leafValues>
            -9.2907804250717163e-01 9.6772456169128418e-01</leafValues></_>
        <_>
          <internalNodes>
            0 -1 14 -2.0801439881324768e-02</internalNodes>
          <leafValues>
            9.4142431020736694e-01 -6.9926553964614868e-01</leafValues></_>
        <_>
          <internalNodes>
            0 -1 8 -7.3636293411254883e-02</internalNodes>
          <leafValues>
            8.0480563640594482e-01 -7.6572000980377197e-01</leafValues></_></weakClassifiers></_>
    <!-- stage 1 -->
    <_>
      <maxWeakCount>3</maxWeakCount>
      <stageThreshold>-5.9585559368133545e-01</stageThreshold>
      <weakClassifiers>
        <_>
          <internalNodes>
            0 -1 4 6.5232968330383301e-01</internalNodes>
          <leafValues>
            -8.1297707557678223e-01 9.6440488100051880e-01</leafValues></_>
        <_>
          <internalNodes>
            0 -1 0 5.0446568056941032e-03</internalNodes>
          <leafValues>
            -6.9999802112579346e-01 8.7471097707748413e-01</leafValues></_>
        <_>
          <internalNodes>
            0 -1 16 3.6807343363761902e-02</internalNodes>
          <leafValues>
            -5.3786468505859375e-01 9.1711956262588501e-01</leafValues></_></weakClassifiers></_>
    <!-- stage 2 -->
    <_>
      <maxWeakCount>4</maxWeakCount>
      <stageThreshold>-1.2994639873504639e+00</stageThreshold>
      <weakClassifiers>
        <_>
          <internalNodes>
            0 -1 4 7.3277390003204346e-01</internalNodes>
          <leafValues>
            -7.5074774026870728e-01 8.8714051246643066e-01</leafValues></_>
        <_>
          <internalNodes>
            0 -1 12 4.6830013394355774e-02</internalNodes>
          <leafValues>
            -5.5110836029052734e-01 8.3236873149871826e-01</leafValues></_>
        <_>
          <internalNodes>
            0 -1 15 -1.8987108021974564e-02</internalNodes>
          <leafValues>
            7.6945167779922485e-01 -6.0309678316116333e-01</leafValues></_>
        <_>
          <internalNodes>
            0 -1 2 1.0517607443034649e-02</internalNodes>
          <leafValues>
            -8.0252939462661743e-01 6.0548895597457886e-01</leafValues></_></weakClassifiers></_>
    <!-- stage 3 -->
    <_>
      <maxWeakCount>3</maxWeakCount>
      <stageThreshold>-6.6535627841949463e-01</stageThreshold>
      <weakClassifiers>
        <_>
          <internalNodes>
            0 -1 11 4.2166903614997864e-02</internalNodes>
          <leafValues>
            -7.0149254798889160e-01 8.6203151941299438e-01</leafValues></_>
        <_>
          <internalNodes>
            0 -1 7 -1.0096362233161926e-01</internalNodes>
          <leafValues>
            7.9893416166305542e-01 -7.3604023456573486e-01</leafValues></_>
        <_>
          <internalNodes>
            0 -1 1 9.5542762428522110e-03</internalNodes>
          <leafValues>
            -5.3894960880279541e-01 7.7217650413513184e-01</leafValues></_></weakClassifiers></_>
    <!-- stage 4 -->
    <_>
      <maxWeakCount>4</maxWeakCount>
      <stageThreshold>-2.6773697137832642e-01</stageThreshold>
      <weakClassifiers>
        <_>
          <internalNodes>
            0 -1 5 5.0348293781280518e-01</internalNodes>
          <leafValues>
            -6.8743401765823364e-01 8.0726701021194458e-01</leafValues></_>
        <_>
          <internalNodes>
            0 -1 17 1.2473023962229490e-03</internalNodes>
          <leafValues>
            -7.9165041446685791e-01 6.3573789596557617e-01</leafValues></_>
        <_>
          <internalNodes>
            0 -1 9 2.7316434308886528e-02</internalNodes>
          <leafValues>
            -5.9760451316833496e-01 6.8863749504089355e-01</leafValues></_>
        <_>
          <internalNodes>
            0 -1 3 7.2553975041955709e-04</internalNodes>
          <leafValues>
            -7.8420513868331909e-01 5.2271002531051636e-01</leafValues></_></weakClassifiers></_>
    <!-- stage 5 -->
    <_>
      <maxWeakCount>2</maxWeakCount>
      <stageThreshold>-1.3156048953533173e-01</stageThreshold>
      <weakClassifiers>
        <_>
          <internalNodes>
            0 -1 10 4.5580238103866577e-02</internalNodes>
          <leafValues>
            -6.3618677854537964e-01 8.4488451480865479e-01</leafValues></_>
        <_>
          <internalNodes>
            0 -1 13 1.1560043785721064e-03</internalNodes>
          <leafValues>
            5.1639997959136963e-01 -9.7644495964050293e-01</leafValues></_></weakClassifiers></_></stages>
  <features>
    <_>
      <rects>
        <_>
          0 4 2 7 -1.</_>
        <_>
          1 4 1 7 2.</_></rects>
      <tilted>0</tilted></_>
    <_>
      <rects>
        <_>
          0 5 2 6 -1.</_>
        <_>
          1 5 1 6 2.</_></rects>
      <tilted>0</tilted></_>
    <_>
      <rects>
        <_>
          0 6 21 2 -1.</_>
        <_>
          7 6 7 2 3.</_></rects>
      <tilted>0</tilted></_>
    <_>
      <rects>
        <_>
          0 7 2 1 -1.</_>
        <_>
          1 7 1 1 2.</_></rects>
      <tilted>0</tilted></_>
    <_>
      <rects>
        <_>
          1 0 39 15 -1.</_>
        <_>
          1 5 39 5 3.</_></rects>
      <tilted>0</tilted></_>
    <_>
      <rects>
        <_>
          1 1 39 12 -1.</_>
        <_>
          1 5 39 4 3.</_></rects>
      <tilted>0</tilted></_>
    <_>
      <rects>
        <_>
          1 2 39 12 -1.</_>
        <_>
          1 6 39 4 3.</_></rects>
      <tilted>0</tilted></_>
    <_>
      <rects>
        <_>
          1 9 39 4 -1.</_>
        <_>
          1 11 39 2 2.</_></rects>
      <tilted>0</tilted></_>
    <_>
      <rects>
        <_>
          3 6 34 6 -1.</_>
        <_>
          3 9 34 3 2.</_></rects>
      <tilted>0</tilted></_>
    <_>
      <rects>
        <_>
          3 9 37 3 -1.</_>
        <_>
          3 10 37 1 3.</_></rects>
      <tilted>0</tilted></_>
    <_>
      <rects>
        <_>
          5 3 25 2 -1.</_>
        <_>
          5 4 25 1 2.</_></rects>
      <tilted>0</tilted></_>
    <_>
      <rects>
        <_>
          5 3 27 2 -1.</_>
        <_>
          5 4 27 1 2.</_></rects>
      <tilted>0</tilted></_>
    <_>
      <rects>
        <_>
          6 3 26 2 -1.</_>
        <_>
          6 4 26 1 2.</_></rects>
      <tilted>0</tilted></_>
    <_>
      <rects>
        <_>
          6 6 9 3 -1.</_>
        <_>
          9 6 3 3 3.</_></rects>
      <tilted>0</tilted></_>
    <_>
      <rects>
        <_>
          9 2 21 3 -1.</_>
        <_>
          9 3 21 1 3.</_></rects>
      <tilted>0</tilted></_>
    <_>
      <rects>
        <_>
          11 10 21 2 -1.</_>
        <_>
          11 11 21 1 2.</_></rects>
      <tilted>0</tilted></_>
    <_>
      <rects>
        <_>
          12 3 27 2 -1.</_>
        <_>
          12 4 27 1 2.</_></rects>
      <tilted>0</tilted></_>
    <_>
      <rects>
        <_>
          20 7 8 1 -1.</_>
        <_>
          24 7 4 1 2.</_></rects>
      <tilted>0</tilted></_></features></cascade>
</opencv_storage>
